/*
 * a_weighting.h
 *
 *  Created on: 15 Απρ 2026
 *      Author: petros
 */

#ifndef INC_A_WEIGHTING_H_
#define INC_A_WEIGHTING_H_

#include "arm_math_types.h"

//A-weighting, pre-computed in python (using waveform-analysis libraries) for frequencies [0,24000] with spacing 47872/1024=46.75 (FFT_N=1024)
//Warning: 0-index value has been set arbitary to 0 due to inf value for 0 frequency. Also, 1-index and > 426-index values are not quite representative, as the relate to <100 and >20kHz frequencies
const float32_t a_weighting_db[512]={0,-79.761181,-58.342954,-47.473768,-40.677069,-35.906544,-32.303585,-29.446492,-27.102866,-25.132639,-23.445245,-21.978791,-20.689099,-19.543528,-18.517290,-17.591141,-16.749866,-15.981255,-15.275385,-14.624102,-14.020640,-13.459340,-12.935428,-12.444854,-11.984154,-11.550352,-11.140874,-10.753484,-10.386229,-10.037396,-9.705474,-9.389128,-9.087170,-8.798541,-8.522292,-8.257573,-8.003616,-7.759727,-7.525277,-7.299694,-7.082455,-6.873084,-6.671143,-6.476229,-6.287974,-6.106034,-5.930093,-5.759858,-5.595056,-5.435434,-5.280756,-5.130800,-4.985360,-4.844242,-4.707264,-4.574256,-4.445057,-4.319515,-4.197487,-4.078838,-3.963440,-3.851171,-3.741918,-3.635571,-3.532026,-3.431185,-3.332955,-3.237244,-3.143970,-3.053049,-2.964405,-2.877963,-2.793652,-2.711404,-2.631154,-2.552840,-2.476401,-2.401780,-2.328922,-2.257775,-2.188286,-2.120407,-2.054092,-1.989293,-1.925969,-1.864076,-1.803574,-1.744425,-1.686589,-1.630032,-1.574717,-1.520611,-1.467681,-1.415895,-1.365222,-1.315634,-1.267101,-1.219596,-1.173092,-1.127563,-1.082984,-1.039331,-0.996579,-0.954707,-0.913691,-0.873512,-0.834147,-0.795577,-0.757783,-0.720744,-0.684443,-0.648863,-0.613985,-0.579793,-0.546271,-0.513402,-0.481171,-0.449564,-0.418566,-0.388162,-0.358340,-0.329085,-0.300384,-0.272226,-0.244598,-0.217487,-0.190882,-0.164773,-0.139147,-0.113995,-0.089306,-0.065069,-0.041275,-0.017915,0.005022,0.027543,0.049659,0.071377,0.092707,0.113655,0.134231,0.154442,0.174295,0.193799,0.212959,0.231784,0.250280,0.268454,0.286312,0.303860,0.321105,0.338054,0.354711,0.371082,0.387174,0.402991,0.418539,0.433823,0.448849,0.463621,0.478144,0.492423,0.506462,0.520267,0.533841,0.547188,0.560314,0.573222,0.585915,0.598399,0.610677,0.622753,0.634630,0.646311,0.657802,0.669104,0.680221,0.691157,0.701915,0.712497,0.722908,0.733149,0.743225,0.753137,0.762888,0.772482,0.781921,0.791208,0.800345,0.809334,0.818179,0.826881,0.835444,0.843869,0.852158,0.860314,0.868339,0.876236,0.884005,0.891650,0.899172,0.906573,0.913855,0.921021,0.928071,0.935008,0.941833,0.948549,0.955156,0.961657,0.968054,0.974347,0.980538,0.986629,0.992622,0.998518,1.004318,1.010023,1.015636,1.021158,1.026589,1.031932,1.037187,1.042356,1.047439,1.052440,1.057357,1.062193,1.066949,1.071626,1.076225,1.080747,1.085193,1.089565,1.093863,1.098088,1.102241,1.106323,1.110336,1.114280,1.118156,1.121965,1.125708,1.129386,1.132999,1.136549,1.140036,1.143461,1.146825,1.150129,1.153374,1.156559,1.159687,1.162757,1.165771,1.168729,1.171632,1.174481,1.177276,1.180017,1.182706,1.185344,1.187930,1.190466,1.192952,1.195388,1.197776,1.200115,1.202407,1.204652,1.206851,1.209003,1.211110,1.213172,1.215190,1.217164,1.219095,1.220983,1.222828,1.224632,1.226394,1.228115,1.229796,1.231437,1.233038,1.234600,1.236123,1.237608,1.239055,1.240464,1.241836,1.243172,1.244471,1.245735,1.246963,1.248155,1.249313,1.250437,1.251526,1.252581,1.253604,1.254593,1.255549,1.256473,1.257365,1.258225,1.259054,1.259852,1.260619,1.261355,1.262061,1.262737,1.263384,1.264001,1.264589,1.265149,1.265679,1.266182,1.266657,1.267104,1.267523,1.267915,1.268281,1.268619,1.268932,1.269218,1.269477,1.269712,1.269920,1.270104,1.270262,1.270396,1.270505,1.270589,1.270649,1.270686,1.270698,1.270687,1.270653,1.270595,1.270515,1.270411,1.270285,1.270137,1.269967,1.269774,1.269560,1.269323,1.269066,1.268787,1.268487,1.268166,1.267824,1.267461,1.267078,1.266675,1.266252,1.265808,1.265345,1.264862,1.264359,1.263837,1.263296,1.262736,1.262156,1.261558,1.260941,1.260306,1.259652,1.258980,1.258290,1.257582,1.256856,1.256113,1.255351,1.254573,1.253776,1.252963,1.252133,1.251285,1.250421,1.249540,1.248642,1.247727,1.246797,1.245850,1.244887,1.243907,1.242912,1.241901,1.240874,1.239831,1.238773,1.237700,1.236611,1.235507,1.234387,1.233253,1.232104,1.230939,1.229760,1.228567,1.227359,1.226136,1.224899,1.223647,1.222382,1.221102,1.219808,1.218500,1.217179,1.215843,1.214494,1.213131,1.211755,1.210365,1.208961,1.207545,1.206115,1.204672,1.203216,1.201747,1.200265,1.198770,1.197262,1.195742,1.194209,1.192664,1.191105,1.189535,1.187952,1.186357,1.184749,1.183130,1.181498,1.179854,1.178199,1.176531,1.174852,1.173160,1.171457,1.169743,1.168017,1.166279,1.164530,1.162769,1.160997,1.159214,1.157419,1.155613,1.153797,1.151969,1.150130,1.148280,1.146419,1.144547,1.142665,1.140771,1.138868,1.136953,1.135028,1.133092,1.131146,1.129189,1.127222,1.125244,1.123257,1.121259,1.119251,1.117232,1.115204,1.113165,1.111117,1.109058,1.106990,1.104911,1.102823,1.100725,1.098617,1.096500,1.094373,1.092236,1.090090,1.087934,1.085769,1.083594,1.081410,1.079216,1.077013,1.074801,1.072579,1.070348,1.068109,1.065860,1.063601,1.061334,1.059058,1.056773,1.054479,1.052175,1.049863,1.047543,1.045213,1.042874,1.040527,1.038171,1.035807,1.033434,1.031052,1.028662,1.026263,1.023855};
const float32_t c_weighting_db[512]={0,-18.622019,-9.181585,-5.252305,-3.311786,-2.242136,-1.600702,-1.189746,-0.912241,-0.716749,-0.574186,-0.467200,-0.384959,-0.320435,-0.268916,-0.227153,-0.192845,-0.164332,-0.140389,-0.120098,-0.102760,-0.087835,-0.074902,-0.063628,-0.053745,-0.045039,-0.037335,-0.030490,-0.024385,-0.018922,-0.014017,-0.009602,-0.005617,-0.002012,0.001257,0.004225,0.006926,0.009386,0.011631,0.013680,0.015553,0.017266,0.018834,0.020268,0.021581,0.022783,0.023882,0.024886,0.025804,0.026640,0.027402,0.028094,0.028721,0.029288,0.029799,0.030257,0.030665,0.031026,0.031344,0.031620,0.031857,0.032057,0.032222,0.032354,0.032455,0.032525,0.032567,0.032581,0.032570,0.032533,0.032473,0.032389,0.032284,0.032157,0.032010,0.031844,0.031658,0.031454,0.031232,0.030994,0.030738,0.030467,0.030179,0.029877,0.029560,0.029228,0.028882,0.028523,0.028150,0.027764,0.027366,0.026954,0.026531,0.026096,0.025649,0.025190,0.024720,0.024239,0.023747,0.023244,0.022731,0.022207,0.021674,0.021130,0.020576,0.020012,0.019438,0.018855,0.018263,0.017661,0.017049,0.016429,0.015800,0.015162,0.014514,0.013858,0.013194,0.012521,0.011839,0.011149,0.010450,0.009743,0.009028,0.008304,0.007573,0.006833,0.006086,0.005330,0.004566,0.003795,0.003015,0.002228,0.001433,0.000631,-0.000179,-0.000997,-0.001823,-0.002656,-0.003496,-0.004344,-0.005199,-0.006062,-0.006933,-0.007810,-0.008695,-0.009587,-0.010487,-0.011393,-0.012307,-0.013228,-0.014157,-0.015092,-0.016035,-0.016984,-0.017941,-0.018905,-0.019876,-0.020854,-0.021838,-0.022830,-0.023829,-0.024835,-0.025847,-0.026867,-0.027894,-0.028927,-0.029967,-0.031014,-0.032068,-0.033129,-0.034196,-0.035271,-0.036352,-0.037440,-0.038534,-0.039636,-0.040744,-0.041859,-0.042980,-0.044108,-0.045243,-0.046385,-0.047533,-0.048688,-0.049849,-0.051018,-0.052192,-0.053374,-0.054562,-0.055756,-0.056957,-0.058165,-0.059379,-0.060600,-0.061828,-0.063061,-0.064302,-0.065549,-0.066802,-0.068062,-0.069329,-0.070602,-0.071881,-0.073167,-0.074459,-0.075758,-0.077064,-0.078375,-0.079693,-0.081018,-0.082349,-0.083686,-0.085030,-0.086381,-0.087737,-0.089100,-0.090470,-0.091845,-0.093228,-0.094616,-0.096011,-0.097412,-0.098820,-0.100234,-0.101654,-0.103080,-0.104513,-0.105952,-0.107398,-0.108850,-0.110308,-0.111772,-0.113243,-0.114720,-0.116203,-0.117693,-0.119189,-0.120691,-0.122199,-0.123713,-0.125234,-0.126761,-0.128294,-0.129834,-0.131380,-0.132932,-0.134490,-0.136054,-0.137625,-0.139201,-0.140784,-0.142373,-0.143969,-0.145570,-0.147178,-0.148792,-0.150412,-0.152038,-0.153670,-0.155308,-0.156953,-0.158604,-0.160261,-0.161924,-0.163593,-0.165268,-0.166949,-0.168637,-0.170330,-0.172030,-0.173736,-0.175447,-0.177165,-0.178889,-0.180619,-0.182355,-0.184098,-0.185846,-0.187600,-0.189361,-0.191127,-0.192899,-0.194678,-0.196462,-0.198253,-0.200050,-0.201852,-0.203661,-0.205475,-0.207296,-0.209123,-0.210955,-0.212794,-0.214638,-0.216489,-0.218346,-0.220208,-0.222077,-0.223951,-0.225831,-0.227718,-0.229610,-0.231508,-0.233413,-0.235323,-0.237239,-0.239161,-0.241089,-0.243023,-0.244962,-0.246908,-0.248860,-0.250817,-0.252780,-0.254750,-0.256725,-0.258706,-0.260693,-0.262686,-0.264684,-0.266689,-0.268699,-0.270715,-0.272737,-0.274765,-0.276799,-0.278839,-0.280884,-0.282935,-0.284992,-0.287055,-0.289124,-0.291198,-0.293279,-0.295365,-0.297457,-0.299554,-0.301658,-0.303767,-0.305882,-0.308003,-0.310129,-0.312261,-0.314400,-0.316543,-0.318693,-0.320848,-0.323009,-0.325176,-0.327348,-0.329527,-0.331711,-0.333900,-0.336096,-0.338297,-0.340503,-0.342716,-0.344934,-0.347158,-0.349387,-0.351622,-0.353863,-0.356110,-0.358362,-0.360620,-0.362883,-0.365152,-0.367427,-0.369707,-0.371993,-0.374285,-0.376582,-0.378885,-0.381194,-0.383508,-0.385828,-0.388153,-0.390484,-0.392820,-0.395162,-0.397510,-0.399863,-0.402222,-0.404586,-0.406956,-0.409332,-0.411713,-0.414099,-0.416491,-0.418889,-0.421292,-0.423701,-0.426115,-0.428535,-0.430960,-0.433391,-0.435827,-0.438269,-0.440716,-0.443169,-0.445627,-0.448091,-0.450560,-0.453034,-0.455514,-0.458000,-0.460491,-0.462987,-0.465489,-0.467996,-0.470509,-0.473027,-0.475551,-0.478080,-0.480614,-0.483154,-0.485699,-0.488250,-0.490806,-0.493367,-0.495934,-0.498506,-0.501083,-0.503666,-0.506254,-0.508848,-0.511447,-0.514051,-0.516660,-0.519275,-0.521895,-0.524521,-0.527152,-0.529788,-0.532430,-0.535076,-0.537728,-0.540386,-0.543048,-0.545716,-0.548390,-0.551068,-0.553752,-0.556441,-0.559135,-0.561835,-0.564539,-0.567249,-0.569965,-0.572685,-0.575411,-0.578142,-0.580878,-0.583619,-0.586366,-0.589117,-0.591874,-0.594636,-0.597404,-0.600176,-0.602954,-0.605736,-0.608524,-0.611317,-0.614116,-0.616919,-0.619728,-0.622541,-0.625360,-0.628184,-0.631013,-0.633847,-0.636686,-0.639531,-0.642380,-0.645235,-0.648094,-0.650959,-0.653829,-0.656704,-0.659583,-0.662468,-0.665358,-0.668254,-0.671154,-0.674059,-0.676969,-0.679884,-0.682804,-0.685730,-0.688660,-0.691595,-0.694535,-0.697480,-0.700431,-0.703386,-0.706346,-0.709311,-0.712281,-0.715256,-0.718236,-0.721221,-0.724211,-0.727206,-0.730206,-0.733211,-0.736220,-0.739235,-0.742254,-0.745279,-0.748308,-0.751342};

#endif /* INC_A_WEIGHTING_H_ */
